<?xml version="1.0"?>
<opencv_storage>
<cascade>
  <stageType>BOOST</stageType>
  <featureType>HAAR</featureType>
  <height>20</height>
  <width>20</width>
  <stageParams>
    <boostType>GAB</boostType>
    <minHitRate>9.9500000476837158e-01</minHitRate>
    <maxFalseAlarm>5.0000000000000000e-01</maxFalseAlarm>
    <weightTrimRate>9.4999999999999996e-01</weightTrimRate>
    <maxDepth>1</maxDepth>
    <maxWeakCount>100</maxWeakCount></stageParams>
  <featureParams>
    <maxCatCount>0</maxCatCount>
    <featSize>1</featSize>
    <mode>BASIC</mode></featureParams>
  <stageNum>3</stageNum>
  <stages>
    <!-- stage 0 -->
    <_>
      <maxWeakCount>4</maxWeakCount>
      <stageThreshold>-2.2234549522399902e+00</stageThreshold>
      <weakClassifiers>
        <_>
          <internalNodes>
            0 -1 4 -4.1619256138801575e-02</internalNodes>
          <leafValues>
            7.8531074523925781e-01 -9.8656427860260010e-01</leafValues></_>
        <_>
          <internalNodes>
            0 -1 1 -3.0060313642024994e-02</internalNodes>
          <leafValues>
            7.8683465719223022e-01 -9.7362071275711060e-01</leafValues></_>
        <_>
          <internalNodes>
            0 -1 9 -6.8192377686500549e-02</internalNodes>
          <leafValues>
            -9.6273064613342285e-01 6.8089336156845093e-01</leafValues></_>
        <_>
          <internalNodes>
            0 -1 0 -3.3358260989189148e-02</internalNodes>
          <leafValues>
            6.9946062564849854e-01 -9.8304772377014160e-01</leafValues></_></weakClassifiers></_>
    <!-- stage 1 -->
    <_>
      <maxWeakCount>4</maxWeakCount>
      <stageThreshold>-2.4540798664093018e+00</stageThreshold>
      <weakClassifiers>
        <_>
          <internalNodes>
            0 -1 8 -2.7887657284736633e-02</internalNodes>
          <leafValues>
            -9.9224555492401123e-01 6.0576921701431274e-01</leafValues></_>
        <_>
          <internalNodes>
            0 -1 6 1.4014899730682373e-01</internalNodes>
          <leafValues>
            -9.6669524908065796e-01 5.6792753934860229e-01</leafValues></_>
        <_>
          <internalNodes>
            0 -1 12 3.0129786580801010e-02</internalNodes>
          <leafValues>
            -9.5217543840408325e-01 6.0949724912643433e-01</leafValues></_>
        <_>
          <internalNodes>
            0 -1 2 2.1230560541152954e-01</internalNodes>
          <leafValues>
            -9.7732168436050415e-01 4.5703631639480591e-01</leafValues></_></weakClassifiers></_>
    <!-- stage 2 -->
    <_>
      <maxWeakCount>5</maxWeakCount>
      <stageThreshold>-3.1854584217071533e+00</stageThreshold>
      <weakClassifiers>
        <_>
          <internalNodes>
            0 -1 7 6.9790706038475037e-04</internalNodes>
          <leafValues>
            -9.5671546459197998e-01 3.7888199090957642e-01</leafValues></_>
        <_>
          <internalNodes>
            0 -1 10 -4.4852614402770996e-02</internalNodes>
          <leafValues>
            3.9167165756225586e-01 -9.9071824550628662e-01</leafValues></_>
        <_>
          <internalNodes>
            0 -1 3 6.7238435149192810e-02</internalNodes>
          <leafValues>
            -9.4370943307876587e-01 5.4039871692657471e-01</leafValues></_>
        <_>
          <internalNodes>
            0 -1 11 8.4532119333744049e-02</internalNodes>
          <leafValues>
            -7.9546952247619629e-01 7.1624791622161865e-01</leafValues></_>
        <_>
          <internalNodes>
            0 -1 5 5.8805190026760101e-02</internalNodes>
          <leafValues>
            -9.7538930177688599e-01 5.0115430355072021e-01</leafValues></_></weakClassifiers></_></stages>
  <features>
    <_>
      <rects>
        <_>
          0 0 4 5 -1.</_>
        <_>
          2 0 2 5 2.</_></rects>
      <tilted>0</tilted></_>
    <_>
      <rects>
        <_>
          0 2 2 12 -1.</_>
        <_>
          1 2 1 12 2.</_></rects>
      <tilted>0</tilted></_>
    <_>
      <rects>
        <_>
          0 4 20 10 -1.</_>
        <_>
          0 9 20 5 2.</_></rects>
      <tilted>0</tilted></_>
    <_>
      <rects>
        <_>
          1 0 8 8 -1.</_>
        <_>
          1 0 4 4 2.</_>
        <_>
          5 4 4 4 2.</_></rects>
      <tilted>0</tilted></_>
    <_>
      <rects>
        <_>
          1 0 17 2 -1.</_>
        <_>
          1 1 17 1 2.</_></rects>
      <tilted>0</tilted></_>
    <_>
      <rects>
        <_>
          1 3 3 12 -1.</_>
        <_>
          1 9 3 6 2.</_></rects>
      <tilted>0</tilted></_>
    <_>
      <rects>
        <_>
          1 4 5 12 -1.</_>
        <_>
          1 10 5 6 2.</_></rects>
      <tilted>0</tilted></_>
    <_>
      <rects>
        <_>
          1 4 18 3 -1.</_>
        <_>
          7 4 6 3 2.</_></rects>
      <tilted>0</tilted></_>
    <_>
      <rects>
        <_>
          1 6 18 2 -1.</_>
        <_>
          7 6 6 2 2.</_></rects>
      <tilted>0</tilted></_>
    <_>
      <rects>
        <_>
          2 4 15 5 -1.</_>
        <_>
          7 4 5 5 2.</_></rects>
      <tilted>0</tilted></_>
    <_>
      <rects>
        <_>
          10 1 10 6 -1.</_>
        <_>
          10 1 5 3 2.</_>
        <_>
          15 4 5 3 2.</_></rects>
      <tilted>0</tilted></_>
    <_>
      <rects>
        <_>
          12 14 8 6 -1.</_>
        <_>
          16 14 4 6 2.</_></rects>
      <tilted>0</tilted></_>
    <_>
      <rects>
        <_>
          17 3 1 14 -1.</_>
        <_>
          17 10 1 7 2.</_></rects>
      <tilted>0</tilted></_></features></cascade>
</opencv_storage>
