<?xml version="1.0"?>
<opencv_storage>
<cascade>
  <stageType>BOOST</stageType>
  <featureType>HAAR</featureType>
  <height>20</height>
  <width>20</width>
  <stageParams>
    <boostType>GAB</boostType>
    <minHitRate>9.9500000476837158e-01</minHitRate>
    <maxFalseAlarm>5.0000000000000000e-01</maxFalseAlarm>
    <weightTrimRate>9.4999999999999996e-01</weightTrimRate>
    <maxDepth>1</maxDepth>
    <maxWeakCount>100</maxWeakCount></stageParams>
  <featureParams>
    <maxCatCount>0</maxCatCount>
    <featSize>1</featSize>
    <mode>BASIC</mode></featureParams>
  <stageNum>12</stageNum>
  <stages>
    <!-- stage 0 -->
    <_>
      <maxWeakCount>4</maxWeakCount>
      <stageThreshold>-2.2234549522399902e+00</stageThreshold>
      <weakClassifiers>
        <_>
          <internalNodes>
            0 -1 16 -4.1619256138801575e-02</internalNodes>
          <leafValues>
            7.8531074523925781e-01 -9.8656427860260010e-01</leafValues></_>
        <_>
          <internalNodes>
            0 -1 5 -3.0060313642024994e-02</internalNodes>
          <leafValues>
            7.8683465719223022e-01 -9.7362071275711060e-01</leafValues></_>
        <_>
          <internalNodes>
            0 -1 28 -6.8192377686500549e-02</internalNodes>
          <leafValues>
            -9.6273064613342285e-01 6.8089336156845093e-01</leafValues></_>
        <_>
          <internalNodes>
            0 -1 1 -3.3358260989189148e-02</internalNodes>
          <leafValues>
            6.9946062564849854e-01 -9.8304772377014160e-01</leafValues></_></weakClassifiers></_>
    <!-- stage 1 -->
    <_>
      <maxWeakCount>4</maxWeakCount>
      <stageThreshold>-2.4540798664093018e+00</stageThreshold>
      <weakClassifiers>
        <_>
          <internalNodes>
            0 -1 24 -2.7887657284736633e-02</internalNodes>
          <leafValues>
            -9.9224555492401123e-01 6.0576921701431274e-01</leafValues></_>
        <_>
          <internalNodes>
            0 -1 20 1.4014899730682373e-01</internalNodes>
          <leafValues>
            -9.6669524908065796e-01 5.6792753934860229e-01</leafValues></_>
        <_>
          <internalNodes>
            0 -1 53 3.0129786580801010e-02</internalNodes>
          <leafValues>
            -9.5217543840408325e-01 6.0949724912643433e-01</leafValues></_>
        <_>
          <internalNodes>
            0 -1 8 2.1230560541152954e-01</internalNodes>
          <leafValues>
            -9.7732168436050415e-01 4.5703631639480591e-01</leafValues></_></weakClassifiers></_>
    <!-- stage 2 -->
    <_>
      <maxWeakCount>5</maxWeakCount>
      <stageThreshold>-3.1854584217071533e+00</stageThreshold>
      <weakClassifiers>
        <_>
          <internalNodes>
            0 -1 22 6.9790706038475037e-04</internalNodes>
          <leafValues>
            -9.5671546459197998e-01 3.7888199090957642e-01</leafValues></_>
        <_>
          <internalNodes>
            0 -1 39 -4.4852614402770996e-02</internalNodes>
          <leafValues>
            3.9167165756225586e-01 -9.9071824550628662e-01</leafValues></_>
        <_>
          <internalNodes>
            0 -1 15 6.7238435149192810e-02</internalNodes>
          <leafValues>
            -9.4370943307876587e-01 5.4039871692657471e-01</leafValues></_>
        <_>
          <internalNodes>
            0 -1 45 8.4532119333744049e-02</internalNodes>
          <leafValues>
            -7.9546952247619629e-01 7.1624791622161865e-01</leafValues></_>
        <_>
          <internalNodes>
            0 -1 18 5.8805190026760101e-02</internalNodes>
          <leafValues>
            -9.7538930177688599e-01 5.0115430355072021e-01</leafValues></_></weakClassifiers></_>
    <!-- stage 3 -->
    <_>
      <maxWeakCount>5</maxWeakCount>
      <stageThreshold>-3.3293142318725586e+00</stageThreshold>
      <weakClassifiers>
        <_>
          <internalNodes>
            0 -1 22 4.3833185918629169e-04</internalNodes>
          <leafValues>
            -9.5675677061080933e-01 4.0506330132484436e-01</leafValues></_>
        <_>
          <internalNodes>
            0 -1 39 -4.5009717345237732e-02</internalNodes>
          <leafValues>
            3.4581995010375977e-01 -9.8957580327987671e-01</leafValues></_>
        <_>
          <internalNodes>
            0 -1 34 -5.5628031492233276e-02</internalNodes>
          <leafValues>
            -9.7303539514541626e-01 4.0504044294357300e-01</leafValues></_>
        <_>
          <internalNodes>
            0 -1 58 5.4539777338504791e-03</internalNodes>
          <leafValues>
            -8.3335292339324951e-01 4.7833487391471863e-01</leafValues></_>
        <_>
          <internalNodes>
            0 -1 46 1.4467683434486389e-01</internalNodes>
          <leafValues>
            -9.6025216579437256e-01 4.2340672016143799e-01</leafValues></_></weakClassifiers></_>
    <!-- stage 4 -->
    <_>
      <maxWeakCount>5</maxWeakCount>
      <stageThreshold>-3.1284527778625488e+00</stageThreshold>
      <weakClassifiers>
        <_>
          <internalNodes>
            0 -1 21 -1.1498875916004181e-01</internalNodes>
          <leafValues>
            7.1698114275932312e-02 -9.7564184665679932e-01</leafValues></_>
        <_>
          <internalNodes>
            0 -1 17 -1.7452526837587357e-02</internalNodes>
          <leafValues>
            4.2600801587104797e-01 -9.6245169639587402e-01</leafValues></_>
        <_>
          <internalNodes>
            0 -1 40 -3.6524645984172821e-02</internalNodes>
          <leafValues>
            -9.6623057126998901e-01 4.6674704551696777e-01</leafValues></_>
        <_>
          <internalNodes>
            0 -1 50 1.3872874900698662e-02</internalNodes>
          <leafValues>
            -8.4107494354248047e-01 3.6642095446586609e-01</leafValues></_>
        <_>
          <internalNodes>
            0 -1 57 7.7410931698977947e-03</internalNodes>
          <leafValues>
            -7.0509904623031616e-01 6.1694639921188354e-01</leafValues></_></weakClassifiers></_>
    <!-- stage 5 -->
    <_>
      <maxWeakCount>5</maxWeakCount>
      <stageThreshold>-3.2688648700714111e+00</stageThreshold>
      <weakClassifiers>
        <_>
          <internalNodes>
            0 -1 29 -7.4177145957946777e-02</internalNodes>
          <leafValues>
            -3.6929461359977722e-01 -9.8085784912109375e-01</leafValues></_>
        <_>
          <internalNodes>
            0 -1 43 -3.0199360102415085e-02</internalNodes>
          <leafValues>
            1.1916188150644302e-01 -9.8405075073242188e-01</leafValues></_>
        <_>
          <internalNodes>
            0 -1 12 -2.8450969606637955e-02</internalNodes>
          <leafValues>
            3.9255291223526001e-01 -9.1474646329879761e-01</leafValues></_>
        <_>
          <internalNodes>
            0 -1 27 6.5477406606078148e-03</internalNodes>
          <leafValues>
            -8.1202715635299683e-01 4.7123113274574280e-01</leafValues></_>
        <_>
          <internalNodes>
            0 -1 30 2.6481382548809052e-02</internalNodes>
          <leafValues>
            -9.3778580427169800e-01 4.2281731963157654e-01</leafValues></_></weakClassifiers></_>
    <!-- stage 6 -->
    <_>
      <maxWeakCount>5</maxWeakCount>
      <stageThreshold>-3.2378270626068115e+00</stageThreshold>
      <weakClassifiers>
        <_>
          <internalNodes>
            0 -1 0 -2.1984983235597610e-02</internalNodes>
          <leafValues>
            -2.5538462400436401e-01 -9.6104770898818970e-01</leafValues></_>
        <_>
          <internalNodes>
            0 -1 51 1.3391515240073204e-02</internalNodes>
          <leafValues>
            -9.5284086465835571e-01 1.7187714576721191e-01</leafValues></_>
        <_>
          <internalNodes>
            0 -1 31 -2.1813077852129936e-02</internalNodes>
          <leafValues>
            -9.4166660308837891e-01 3.6371406912803650e-01</leafValues></_>
        <_>
          <internalNodes>
            0 -1 11 -1.1920241639018059e-02</internalNodes>
          <leafValues>
            3.7498500943183899e-01 -8.5338932275772095e-01</leafValues></_>
        <_>
          <internalNodes>
            0 -1 54 1.3772355392575264e-02</internalNodes>
          <leafValues>
            -8.0715578794479370e-01 4.7111734747886658e-01</leafValues></_></weakClassifiers></_>
    <!-- stage 7 -->
    <_>
      <maxWeakCount>6</maxWeakCount>
      <stageThreshold>-2.9049534797668457e+00</stageThreshold>
      <weakClassifiers>
        <_>
          <internalNodes>
            0 -1 56 1.7247453797608614e-03</internalNodes>
          <leafValues>
            -9.6166777610778809e-01 -2.5835865736007690e-01</leafValues></_>
        <_>
          <internalNodes>
            0 -1 36 9.5667704939842224e-02</internalNodes>
          <leafValues>
            -9.5813506841659546e-01 8.7166056036949158e-02</leafValues></_>
        <_>
          <internalNodes>
            0 -1 0 -1.5228203497827053e-02</internalNodes>
          <leafValues>
            4.6670266985893250e-01 -8.3728003501892090e-01</leafValues></_>
        <_>
          <internalNodes>
            0 -1 13 -4.9345642328262329e-03</internalNodes>
          <leafValues>
            4.5773988962173462e-01 -8.5175389051437378e-01</leafValues></_>
        <_>
          <internalNodes>
            0 -1 41 2.2521233186125755e-03</internalNodes>
          <leafValues>
            -9.1866016387939453e-01 3.3644181489944458e-01</leafValues></_>
        <_>
          <internalNodes>
            0 -1 23 2.6867905259132385e-01</internalNodes>
          <leafValues>
            -9.4021338224411011e-01 3.6744144558906555e-01</leafValues></_></weakClassifiers></_>
    <!-- stage 8 -->
    <_>
      <maxWeakCount>6</maxWeakCount>
      <stageThreshold>-2.9550416469573975e+00</stageThreshold>
      <weakClassifiers>
        <_>
          <internalNodes>
            0 -1 47 5.9578262269496918e-02</internalNodes>
          <leafValues>
            -9.6878182888031006e-01 -2.5280898809432983e-01</leafValues></_>
        <_>
          <internalNodes>
            0 -1 9 1.8334671854972839e-02</internalNodes>
          <leafValues>
            -9.0476983785629272e-01 2.5534656643867493e-01</leafValues></_>
        <_>
          <internalNodes>
            0 -1 49 1.9270870834589005e-02</internalNodes>
          <leafValues>
            -9.4667345285415649e-01 3.8297790288925171e-01</leafValues></_>
        <_>
          <internalNodes>
            0 -1 6 7.7858744189143181e-03</internalNodes>
          <leafValues>
            -8.7090009450912476e-01 4.0787968039512634e-01</leafValues></_>
        <_>
          <internalNodes>
            0 -1 38 6.8639037199318409e-03</internalNodes>
          <leafValues>
            -9.7589856386184692e-01 2.7025344967842102e-01</leafValues></_>
        <_>
          <internalNodes>
            0 -1 19 4.1156258434057236e-02</internalNodes>
          <leafValues>
            -6.9294357299804688e-01 4.6583014726638794e-01</leafValues></_></weakClassifiers></_>
    <!-- stage 9 -->
    <_>
      <maxWeakCount>5</maxWeakCount>
      <stageThreshold>-2.9218566417694092e+00</stageThreshold>
      <weakClassifiers>
        <_>
          <internalNodes>
            0 -1 59 -2.1141178905963898e-02</internalNodes>
          <leafValues>
            -7.9365082085132599e-02 -9.4091200828552246e-01</leafValues></_>
        <_>
          <internalNodes>
            0 -1 25 -1.0358519852161407e-02</internalNodes>
          <leafValues>
            4.8947003483772278e-01 -8.1353414058685303e-01</leafValues></_>
        <_>
          <internalNodes>
            0 -1 33 -6.0770377516746521e-02</internalNodes>
          <leafValues>
            -9.6071004867553711e-01 4.2420223355293274e-01</leafValues></_>
        <_>
          <internalNodes>
            0 -1 55 4.3156417086720467e-03</internalNodes>
          <leafValues>
            -6.8947207927703857e-01 5.2557623386383057e-01</leafValues></_>
        <_>
          <internalNodes>
            0 -1 4 -2.6880137622356415e-02</internalNodes>
          <leafValues>
            4.8277166485786438e-01 -7.6614487171173096e-01</leafValues></_></weakClassifiers></_>
    <!-- stage 10 -->
    <_>
      <maxWeakCount>6</maxWeakCount>
      <stageThreshold>-2.9612677097320557e+00</stageThreshold>
      <weakClassifiers>
        <_>
          <internalNodes>
            0 -1 59 -2.1162215620279312e-02</internalNodes>
          <leafValues>
            -1.7924527823925018e-01 -9.4047236442565918e-01</leafValues></_>
        <_>
          <internalNodes>
            0 -1 26 -1.7234638333320618e-02</internalNodes>
          <leafValues>
            7.9069949686527252e-02 -9.2962151765823364e-01</leafValues></_>
        <_>
          <internalNodes>
            0 -1 14 -2.9893778264522552e-02</internalNodes>
          <leafValues>
            2.4826937913894653e-01 -9.3243318796157837e-01</leafValues></_>
        <_>
          <internalNodes>
            0 -1 52 -3.1746430322527885e-03</internalNodes>
          <leafValues>
            3.6835941672325134e-01 -7.7007454633712769e-01</leafValues></_>
        <_>
          <internalNodes>
            0 -1 7 1.2124861776828766e-01</internalNodes>
          <leafValues>
            -9.5683109760284424e-01 3.0814644694328308e-01</leafValues></_>
        <_>
          <internalNodes>
            0 -1 35 3.8724567741155624e-02</internalNodes>
          <leafValues>
            -9.8388642072677612e-01 3.0318734049797058e-01</leafValues></_></weakClassifiers></_>
    <!-- stage 11 -->
    <_>
      <maxWeakCount>8</maxWeakCount>
      <stageThreshold>-3.4549551010131836e+00</stageThreshold>
      <weakClassifiers>
        <_>
          <internalNodes>
            0 -1 48 -5.4464526474475861e-02</internalNodes>
          <leafValues>
            -4.5412844419479370e-01 -9.5814442634582520e-01</leafValues></_>
        <_>
          <internalNodes>
            0 -1 3 -8.7259307503700256e-02</internalNodes>
          <leafValues>
            5.4811085574328899e-03 -9.4618874788284302e-01</leafValues></_>
        <_>
          <internalNodes>
            0 -1 37 1.3921989593654871e-03</internalNodes>
          <leafValues>
            -7.9047733545303345e-01 3.9770942926406860e-01</leafValues></_>
        <_>
          <internalNodes>
            0 -1 44 -2.5793775916099548e-02</internalNodes>
          <leafValues>
            -8.7875151634216309e-01 3.6756965517997742e-01</leafValues></_>
        <_>
          <internalNodes>
            0 -1 10 -1.2607562541961670e-01</internalNodes>
          <leafValues>
            3.0119660496711731e-01 -9.6468544006347656e-01</leafValues></_>
        <_>
          <internalNodes>
            0 -1 42 -9.7365733236074448e-03</internalNodes>
          <leafValues>
            -6.6990363597869873e-01 4.0558713674545288e-01</leafValues></_>
        <_>
          <internalNodes>
            0 -1 2 -1.4223754405975342e-01</internalNodes>
          <leafValues>
            2.9142588376998901e-01 -1.</leafValues></_>
        <_>
          <internalNodes>
            0 -1 32 8.7606531451456249e-05</internalNodes>
          <leafValues>
            1.9588810205459595e-01 -9.8094218969345093e-01</leafValues></_></weakClassifiers></_></stages>
  <features>
    <_>
      <rects>
        <_>
          0 0 4 4 -1.</_>
        <_>
          0 0 2 2 2.</_>
        <_>
          2 2 2 2 2.</_></rects>
      <tilted>0</tilted></_>
    <_>
      <rects>
        <_>
          0 0 4 5 -1.</_>
        <_>
          2 0 2 5 2.</_></rects>
      <tilted>0</tilted></_>
    <_>
      <rects>
        <_>
          0 0 3 12 -1.</_>
        <_>
          0 4 3 4 2.</_></rects>
      <tilted>0</tilted></_>
    <_>
      <rects>
        <_>
          0 0 8 4 -1.</_>
        <_>
          4 0 4 4 2.</_></rects>
      <tilted>0</tilted></_>
    <_>
      <rects>
        <_>
          0 2 2 11 -1.</_>
        <_>
          1 2 1 11 2.</_></rects>
      <tilted>0</tilted></_>
    <_>
      <rects>
        <_>
          0 2 2 12 -1.</_>
        <_>
          1 2 1 12 2.</_></rects>
      <tilted>0</tilted></_>
    <_>
      <rects>
        <_>
          0 2 8 2 -1.</_>
        <_>
          0 2 4 1 2.</_>
        <_>
          4 3 4 1 2.</_></rects>
      <tilted>0</tilted></_>
    <_>
      <rects>
        <_>
          0 2 6 14 -1.</_>
        <_>
          0 9 6 7 2.</_></rects>
      <tilted>0</tilted></_>
    <_>
      <rects>
        <_>
          0 4 20 10 -1.</_>
        <_>
          0 9 20 5 2.</_></rects>
      <tilted>0</tilted></_>
    <_>
      <rects>
        <_>
          0 6 2 14 -1.</_>
        <_>
          0 6 1 7 2.</_>
        <_>
          1 13 1 7 2.</_></rects>
      <tilted>0</tilted></_>
    <_>
      <rects>
        <_>
          0 11 20 3 -1.</_>
        <_>
          0 12 20 1 2.</_></rects>
      <tilted>0</tilted></_>
    <_>
      <rects>
        <_>
          0 12 4 5 -1.</_>
        <_>
          2 12 2 5 2.</_></rects>
      <tilted>0</tilted></_>
    <_>
      <rects>
        <_>
          0 13 6 4 -1.</_>
        <_>
          3 13 3 4 2.</_></rects>
      <tilted>0</tilted></_>
    <_>
      <rects>
        <_>
          0 14 1 6 -1.</_>
        <_>
          0 17 1 3 2.</_></rects>
      <tilted>0</tilted></_>
    <_>
      <rects>
        <_>
          1 0 4 5 -1.</_>
        <_>
          3 0 2 5 2.</_></rects>
      <tilted>0</tilted></_>
    <_>
      <rects>
        <_>
          1 0 8 8 -1.</_>
        <_>
          1 0 4 4 2.</_>
        <_>
          5 4 4 4 2.</_></rects>
      <tilted>0</tilted></_>
    <_>
      <rects>
        <_>
          1 0 17 2 -1.</_>
        <_>
          1 1 17 1 2.</_></rects>
      <tilted>0</tilted></_>
    <_>
      <rects>
        <_>
          1 1 6 1 -1.</_>
        <_>
          4 1 3 1 2.</_></rects>
      <tilted>0</tilted></_>
    <_>
      <rects>
        <_>
          1 3 3 12 -1.</_>
        <_>
          1 9 3 6 2.</_></rects>
      <tilted>0</tilted></_>
    <_>
      <rects>
        <_>
          1 4 3 8 -1.</_>
        <_>
          1 8 3 4 2.</_></rects>
      <tilted>0</tilted></_>
    <_>
      <rects>
        <_>
          1 4 5 12 -1.</_>
        <_>
          1 10 5 6 2.</_></rects>
      <tilted>0</tilted></_>
    <_>
      <rects>
        <_>
          1 4 10 12 -1.</_>
        <_>
          1 4 5 6 2.</_>
        <_>
          6 10 5 6 2.</_></rects>
      <tilted>0</tilted></_>
    <_>
      <rects>
        <_>
          1 4 18 3 -1.</_>
        <_>
          7 4 6 3 2.</_></rects>
      <tilted>0</tilted></_>
    <_>
      <rects>
        <_>
          1 4 19 12 -1.</_>
        <_>
          1 10 19 6 2.</_></rects>
      <tilted>0</tilted></_>
    <_>
      <rects>
        <_>
          1 6 18 2 -1.</_>
        <_>
          7 6 6 2 2.</_></rects>
      <tilted>0</tilted></_>
    <_>
      <rects>
        <_>
          2 0 4 2 -1.</_>
        <_>
          2 0 2 1 2.</_>
        <_>
          4 1 2 1 2.</_></rects>
      <tilted>0</tilted></_>
    <_>
      <rects>
        <_>
          2 0 5 2 -1.</_>
        <_>
          2 1 5 1 2.</_></rects>
      <tilted>0</tilted></_>
    <_>
      <rects>
        <_>
          2 1 6 2 -1.</_>
        <_>
          2 1 3 1 2.</_>
        <_>
          5 2 3 1 2.</_></rects>
      <tilted>0</tilted></_>
    <_>
      <rects>
        <_>
          2 4 15 5 -1.</_>
        <_>
          7 4 5 5 2.</_></rects>
      <tilted>0</tilted></_>
    <_>
      <rects>
        <_>
          2 6 10 10 -1.</_>
        <_>
          2 6 5 5 2.</_>
        <_>
          7 11 5 5 2.</_></rects>
      <tilted>0</tilted></_>
    <_>
      <rects>
        <_>
          4 2 1 16 -1.</_>
        <_>
          4 10 1 8 2.</_></rects>
      <tilted>0</tilted></_>
    <_>
      <rects>
        <_>
          6 1 2 9 -1.</_>
        <_>
          6 4 2 3 2.</_></rects>
      <tilted>0</tilted></_>
    <_>
      <rects>
        <_>
          7 10 9 10 -1.</_>
        <_>
          7 15 9 5 2.</_></rects>
      <tilted>0</tilted></_>
    <_>
      <rects>
        <_>
          7 14 6 5 -1.</_>
        <_>
          9 14 2 5 2.</_></rects>
      <tilted>0</tilted></_>
    <_>
      <rects>
        <_>
          8 1 2 18 -1.</_>
        <_>
          8 7 2 6 2.</_></rects>
      <tilted>0</tilted></_>
    <_>
      <rects>
        <_>
          8 1 12 16 -1.</_>
        <_>
          8 1 6 8 2.</_>
        <_>
          14 9 6 8 2.</_></rects>
      <tilted>0</tilted></_>
    <_>
      <rects>
        <_>
          8 4 10 16 -1.</_>
        <_>
          8 4 5 8 2.</_>
        <_>
          13 12 5 8 2.</_></rects>
      <tilted>0</tilted></_>
    <_>
      <rects>
        <_>
          8 8 2 2 -1.</_>
        <_>
          9 8 1 2 2.</_></rects>
      <tilted>0</tilted></_>
    <_>
      <rects>
        <_>
          8 10 12 6 -1.</_>
        <_>
          8 10 6 3 2.</_>
        <_>
          14 13 6 3 2.</_></rects>
      <tilted>0</tilted></_>
    <_>
      <rects>
        <_>
          10 1 10 6 -1.</_>
        <_>
          10 1 5 3 2.</_>
        <_>
          15 4 5 3 2.</_></rects>
      <tilted>0</tilted></_>
    <_>
      <rects>
        <_>
          10 17 6 3 -1.</_>
        <_>
          12 17 2 3 2.</_></rects>
      <tilted>0</tilted></_>
    <_>
      <rects>
        <_>
          11 1 1 6 -1.</_>
        <_>
          11 4 1 3 2.</_></rects>
      <tilted>0</tilted></_>
    <_>
      <rects>
        <_>
          12 1 1 9 -1.</_>
        <_>
          12 4 1 3 2.</_></rects>
      <tilted>0</tilted></_>
    <_>
      <rects>
        <_>
          12 1 8 6 -1.</_>
        <_>
          12 1 4 3 2.</_>
        <_>
          16 4 4 3 2.</_></rects>
      <tilted>0</tilted></_>
    <_>
      <rects>
        <_>
          12 5 6 3 -1.</_>
        <_>
          14 5 2 3 2.</_></rects>
      <tilted>0</tilted></_>
    <_>
      <rects>
        <_>
          12 14 8 6 -1.</_>
        <_>
          16 14 4 6 2.</_></rects>
      <tilted>0</tilted></_>
    <_>
      <rects>
        <_>
          13 4 7 14 -1.</_>
        <_>
          13 11 7 7 2.</_></rects>
      <tilted>0</tilted></_>
    <_>
      <rects>
        <_>
          13 14 6 6 -1.</_>
        <_>
          16 14 3 6 2.</_></rects>
      <tilted>0</tilted></_>
    <_>
      <rects>
        <_>
          14 0 6 4 -1.</_>
        <_>
          14 2 6 2 2.</_></rects>
      <tilted>0</tilted></_>
    <_>
      <rects>
        <_>
          14 1 6 3 -1.</_>
        <_>
          17 1 3 3 2.</_></rects>
      <tilted>0</tilted></_>
    <_>
      <rects>
        <_>
          16 1 4 4 -1.</_>
        <_>
          18 1 2 4 2.</_></rects>
      <tilted>0</tilted></_>
    <_>
      <rects>
        <_>
          16 2 4 3 -1.</_>
        <_>
          18 2 2 3 2.</_></rects>
      <tilted>0</tilted></_>
    <_>
      <rects>
        <_>
          17 2 2 6 -1.</_>
        <_>
          17 2 1 3 2.</_>
        <_>
          18 5 1 3 2.</_></rects>
      <tilted>0</tilted></_>
    <_>
      <rects>
        <_>
          17 3 1 14 -1.</_>
        <_>
          17 10 1 7 2.</_></rects>
      <tilted>0</tilted></_>
    <_>
      <rects>
        <_>
          17 5 2 6 -1.</_>
        <_>
          17 8 2 3 2.</_></rects>
      <tilted>0</tilted></_>
    <_>
      <rects>
        <_>
          17 8 2 2 -1.</_>
        <_>
          17 9 2 1 2.</_></rects>
      <tilted>0</tilted></_>
    <_>
      <rects>
        <_>
          17 12 2 2 -1.</_>
        <_>
          17 12 1 1 2.</_>
        <_>
          18 13 1 1 2.</_></rects>
      <tilted>0</tilted></_>
    <_>
      <rects>
        <_>
          18 0 2 14 -1.</_>
        <_>
          18 0 1 7 2.</_>
        <_>
          19 7 1 7 2.</_></rects>
      <tilted>0</tilted></_>
    <_>
      <rects>
        <_>
          18 2 2 4 -1.</_>
        <_>
          19 2 1 4 2.</_></rects>
      <tilted>0</tilted></_>
    <_>
      <rects>
        <_>
          18 8 2 12 -1.</_>
        <_>
          18 8 1 6 2.</_>
        <_>
          19 14 1 6 2.</_></rects>
      <tilted>0</tilted></_></features></cascade>
</opencv_storage>
